,0,1,2,3,4,5,6,7,8,9,10,11,12,13,14,15,16,17,18,19,20,21,22,23,24,25,26,27,28,29,30,31
0,-22.779264,5.371543,-0.18897317,-16.14116,6.05173,-5.820706,-1.280891,3.6305463,-3.3025975,19.126743,-9.807623,-0.32670963,5.105047,6.191121,3.1691108,23.26664,16.649483,-2.8057735,3.3830922,5.2678256,-19.069386,4.4275208,0.60922813,2.1408725,-1.563252,-5.3169756,3.6984513,-2.5461164,-2.4092665,2.6257968,-8.524327,-65.83845
1,-3.9460897,-1.1876519,6.070154,-1.7651813,2.1438055,-2.625787,-1.114955,-0.18695915,-1.0216348,4.044816,2.9122434,-0.87217915,1.2094772,2.585083,0.3557149,16.671932,0.4516942,3.7434616,-6.2691765,0.9452352,-26.520584,2.4990723,4.018347,3.2939363,-2.8784108,-6.210395,-14.875858,-1.9619002,-6.3788853,0.046562195,-5.022138,-47.109745
2,0.2816155,0.91481966,1.7418051,1.1587818,1.2494831,-1.145352,0.9861244,-0.7897744,0.5883846,-2.7096963,3.2407148,0.11818377,0.7209525,0.69600105,0.6569362,18.497799,-7.88072,-5.8052645,-0.3618117,-5.6872,-43.768505,0.2738931,1.1001847,3.5370178,-9.953687,5.254513,-23.501724,-2.349778,-2.9441452,-1.1545417,-0.1560261,-6.73082
3,0.40993115,1.8799114,-0.52228725,1.7731317,-1.1882598,0.7493584,1.1875093,-0.002766246,0.24550375,-0.86833316,2.851648,0.81433797,1.2842422,-0.4150386,0.7587406,17.206837,-2.2076988,-10.691138,4.0689125,-12.317444,-24.472237,-3.84029,-0.47541207,1.7303495,-9.547328,3.31042,-25.191204,-3.9783006,-4.6726117,0.81544375,4.973193,20.244804
4,-0.3448703,1.3953607,-0.52803236,1.4486771,-2.3975286,0.8393251,1.0286521,0.5920865,-0.15073514,0.80562633,1.2315896,0.5643617,0.41129118,-0.5982126,0.52152973,13.404178,6.1670885,-9.299318,3.7792969,-16.878218,-12.834261,-6.1677914,-3.0832329,-0.69365543,-2.909816,-2.7071104,-18.965553,-2.647743,-3.6834326,1.3188527,4.6460476,16.813553
5,-0.42561254,1.0473635,-0.10112342,0.77935207,-2.083108,0.5341083,0.9027674,0.7010527,-0.08972944,1.447936,0.3127184,0.36011964,-0.14885712,-0.6004733,0.14715908,10.559208,10.854082,-8.704583,1.8369043,-16.965254,-9.799957,-7.29167,-5.806819,-1.7015792,-2.1291046,-5.4596596,-13.052736,-1.6555614,-2.2966166,1.7198385,3.7533445,12.164656
6,-0.1316414,0.8905916,0.14587769,0.29426754,-1.4799612,0.26442307,0.8456209,0.7540408,0.008114938,1.6130525,-0.022943616,0.3635885,-0.43699753,-0.5459013,-0.24931784,8.611189,11.942333,-9.765634,0.6051539,-15.723932,-9.133898,-7.9542828,-7.529076,-2.9082885,-3.1933486,-6.9451065,-6.94193,-2.2905893,-0.96858263,3.9248605,3.163772,11.075747
7,0.29098535,0.7798019,0.23023292,-0.083936185,-1.068577,0.1281277,1.0507116,0.81908643,-0.077566646,1.1750019,-0.061586723,0.43809757,-0.5580651,-0.35410777,-0.7082884,7.5508814,10.918959,-13.500795,0.18764696,-11.041191,-8.577623,-7.5308123,-8.796205,-4.129755,-3.2432513,-5.9946146,0.8696784,-3.566069,0.75069946,6.360609,3.319896,13.918568
8,0.8167071,0.63407993,0.20240808,-0.30252293,-0.6786708,0.18979304,1.5691028,0.9420402,-0.2607895,0.18756948,0.25890282,0.5742642,-0.43925086,-0.086062804,-1.159487,7.717105,9.665831,-19.704975,0.770548,-6.2132454,-7.9060593,-5.529294,-10.8040085,-6.4855113,-3.1708646,-1.8859959,13.948479,-5.494244,2.1098933,5.3278346,4.3368583,18.665852
9,1.0633197,0.42270136,0.2897823,-0.5149989,-1.247318,0.47590405,2.1613264,0.7639458,-0.6613587,-1.396495,0.3815006,0.16375378,-0.2762524,0.2498518,0.20242134,8.246271,13.945165,-24.846245,1.8330829,-2.9405022,-1.6822145,-8.745937,-15.719922,-5.642028,-8.885035,6.994508,10.300913,-4.0039344,1.9668317,-3.553501,-0.74641895,20.182858
10,0.90578896,0.2050578,0.29278156,-0.82543564,-0.9774128,0.7633291,2.4737663,0.62682223,-0.7460058,-1.8745317,0.42996943,-0.23790798,0.03594955,0.35185578,0.31832382,8.742873,17.88666,-23.079062,1.4300239,-0.5339754,-4.323748,-15.757925,-19.9104,-8.73661,-5.86185,13.329057,-3.8699825,-2.2419944,-0.27468845,-11.324534,-2.143793,18.420946
11,-0.89144623,-0.14605245,0.11143421,-0.8592183,-0.24489741,0.49148417,1.7318556,0.46113974,0.4371296,-0.7849537,-0.1575585,0.30256432,0.49894118,-0.25877512,-0.7812562,8.231057,23.754913,0.4765827,0.03834559,1.0910895,-24.416832,-24.160118,-17.049534,-14.298646,19.3139,6.089596,-69.97308,-5.293646,-9.742675,15.314839,4.851575,20.470003
12,-0.6880606,0.24604075,0.15669498,-0.7486042,-0.6819349,0.47646236,1.8427665,0.306836,-0.2774409,-0.8539205,0.31684545,-0.12833838,0.5037989,-0.13744101,-0.4143585,9.373327,18.086174,5.297662,0.2453614,0.43663496,-23.77013,-26.538584,-21.822668,-13.252804,1.6856425,9.192966,-71.469345,1.0632515,-17.101442,2.7838464,4.0551057,30.846485
13,-0.9144966,0.5761159,0.23795079,-0.78291416,-1.1430846,0.3587215,1.5291774,0.28971922,-0.3574782,-0.53725904,0.5222703,-0.24072635,0.4220878,0.11186521,0.0020522317,10.242154,20.490875,4.950929,0.59292805,1.1177157,-18.75544,-21.930706,-22.008337,-22.455097,-24.216726,7.927924,-58.199375,1.7908059,-24.136074,-5.932876,0.90925455,40.89509
14,-1.4292479,0.67619866,0.33187312,-0.62644637,-1.3370897,0.30523774,1.0492697,0.18341425,-0.09893644,-0.31311232,0.5451132,-0.2092169,0.3204696,0.34675843,0.23201402,10.23447,27.160912,10.252697,0.62601006,1.053864,-15.608703,-17.10969,-15.404532,-28.086855,-29.316267,6.241419,-42.521385,1.147659,-32.049393,-16.428635,-3.1758194,49.547047
15,-1.8196783,0.5898031,0.38775876,-0.40334404,-1.4316078,0.032454737,0.5451212,0.18276893,0.49120986,-0.35960883,0.11338225,-0.112960145,0.15548995,0.5216363,0.25236022,9.821671,31.99819,11.431524,0.39643905,0.14158507,-14.266312,5.5626326,-3.1599078,-22.585365,-26.810762,8.295824,-30.132156,-1.6840342,-36.850517,-35.18727,-6.2921467,56.284683
16,-1.7734671,0.4396683,0.39917988,-0.1631749,-1.1066244,-0.20724642,0.46771714,0.21016094,0.73354656,-0.6293882,-0.38080806,-0.088108584,0.020660494,0.38748503,0.19538525,9.472053,29.808031,14.56786,0.34895515,-1.2747016,-12.873999,41.66925,-1.8709213,-0.14721733,-26.22145,21.10608,-13.010422,-1.9436178,-38.13956,-50.8311,-6.2433424,60.01847
17,-1.6193169,0.2375616,0.4272226,-0.103015445,-1.0178927,-0.20702691,0.3690716,0.27542531,0.67411506,-0.9379134,-0.45623797,-0.001535106,-0.10119934,-0.23904307,0.11425751,9.876686,25.128557,18.517647,0.27440482,-2.0623045,-10.17358,60.33397,-5.3699446,13.375166,-37.49355,45.279434,10.437583,-2.6349611,-36.856163,-34.895393,3.5816703,67.80618
18,-1.3567135,0.040271137,0.46458718,-0.18149474,-1.0301492,-0.018490897,0.38520926,0.26798442,0.46114704,-1.0636675,0.100625604,-0.0038193706,-0.30649078,-0.8340194,0.07980107,11.297724,15.704342,27.367115,-0.12725563,-0.34699225,-4.285166,37.43956,-12.239444,19.848124,-43.561028,67.53578,38.85193,2.8612342,-32.743034,-24.392014,15.578422,71.64212
19,-1.0571022,-0.16456923,0.50672305,-0.37894744,-1.0366343,0.1876985,0.49765036,0.23027399,-0.18177225,-0.9391712,0.15548703,0.06855515,-0.3953671,-1.0524583,0.06907426,12.4316435,12.386683,32.203957,-0.1149708,5.4104166,0.007888138,17.11994,-20.835629,12.121916,-33.804253,83.699936,29.997183,-6.2133665,-28.56636,-13.934747,28.360188,70.48527
20,-0.77870333,-0.33532745,0.5049788,-0.55195606,-1.0844404,0.31001824,0.38659868,0.19072738,-0.43624982,-0.7669941,0.41642153,0.05898279,-0.37369037,-0.9140077,0.08368958,13.263006,8.136127,28.931293,0.7686552,7.9425626,0.39057702,12.314862,-17.834648,7.757905,-25.21276,101.85934,12.426334,-11.33492,-24.961842,-23.128237,36.543175,66.0478
21,-0.46441367,-0.31249917,0.49568444,-0.5807164,-1.2238328,0.28444463,0.2871721,0.17716514,-0.2624144,-0.536625,0.8041196,-0.09078249,-0.43707064,-0.7675586,0.078636184,13.996248,1.5402498,24.905811,1.5818703,2.573678,0.52953625,-12.061058,-5.191219,24.834106,-26.634338,105.14803,49.925713,11.384518,-19.544373,-44.21622,37.607224,55.757656
