,0,1,2,3,4,5,6,7,8,9,10,11,12,13,14,15,16,17,18,19,20,21,22,23,24,25,26,27,28,29,30,31
0,9.371151,0.3312481,17.158932,2.2592535,10.522791,-13.408995,5.9905634,-6.54282,3.1120892,12.646366,7.637828,-1.9949446,-10.004186,12.699434,-3.1721983,12.456595,-13.663681,-1.0073406,-10.026158,-1.9401484,-18.173735,17.34394,-3.4512064,11.574718,6.2640696,-9.439811,-12.065301,0.6219892,9.904794,-11.179847,17.197033,47.052593
1,2.3534281,-0.30587015,8.87064,0.86807525,-0.9580743,-2.9044678,6.4159966,3.1051433,-1.3363849,5.1723514,1.5792714,-1.4953194,-3.2947211,4.5568824,7.049237,17.445004,-8.160798,-1.4166358,-9.797344,-7.964983,-3.755767,6.532113,-12.988857,2.023222,3.3612676,-9.820794,-5.205417,0.3161316,5.5832915,-8.389318,-10.595371,36.137177
2,0.6114598,-0.43343896,5.0915637,0.7942159,-1.0307741,-1.3256943,3.013772,2.0154347,-1.9280233,1.3492118,0.7749767,-0.98770523,-1.98729,0.86663806,7.112194,16.782093,-3.3805008,-0.21067455,-7.8739834,-10.197624,0.13546503,6.4937515,-10.713079,-0.7361913,5.4350657,-2.577719,-0.29005817,3.4842968,4.1148114,-1.7914091,-16.068232,33.87764
3,-0.831763,-0.622972,2.9971495,0.77867913,-1.2115399,-0.9510468,1.6416776,0.80438113,-1.2874749,0.09255086,0.8634341,-0.39754355,-1.1602252,-0.11069515,4.734416,15.502793,3.3148732,4.9368334,-5.686548,-6.0810475,0.7822497,7.913177,-7.0202484,-1.93839,5.46151,0.43372458,-0.46205115,4.114658,4.6945777,0.9629657,-11.887493,24.838253
4,-1.4255257,-0.42074716,1.9198594,0.7850488,-1.4082406,-0.6094106,0.91175544,0.33849397,-0.85263145,-0.17164479,0.7056798,0.039240282,-0.4701692,-0.35525465,3.5669575,14.22526,11.394883,7.085149,-4.3124523,-1.5989449,2.1707711,8.048192,-5.4373527,-0.28771102,4.968849,-0.6337582,-1.7020276,2.421852,3.510726,1.1690687,-9.769024,17.991503
5,-1.5346351,-0.21480787,1.153607,0.9212644,-1.389185,-0.04039272,0.4614985,0.51079905,-0.7513474,0.2839622,0.5289993,0.24938327,-0.038450807,-0.69909954,2.9018936,13.280726,19.991983,5.9731684,-2.7467437,-0.89356613,3.0676842,6.681167,-4.706174,-0.33396894,4.51587,-6.136469,-3.8191867,0.42186624,1.490849,1.9068298,-9.239595,15.657328
6,-1.4820098,-0.18393518,0.6666945,1.0921564,-1.1263605,0.7215628,0.46625757,1.007647,-0.8382403,0.80337113,0.32260346,0.19463843,0.20548123,-0.85564315,2.257542,13.208876,26.64409,4.261795,-1.3595042,-2.7033625,2.7276897,3.19307,-4.7286506,-3.772048,4.7283993,-12.235157,-4.640856,-0.2735208,-0.7079382,3.3383465,-7.4728727,15.457837
7,-1.3504063,-0.27690175,0.30495647,0.8593471,-0.8327514,1.6544092,0.7647581,1.1665721,-1.0503794,1.2056586,0.2471664,-0.16022131,0.4285138,-0.88150644,1.4914529,14.184973,31.499613,3.7583451,0.8781599,-0.70508236,2.0203834,-2.7160745,-5.8444347,-3.8071752,5.8970056,-14.641598,-4.28965,2.6925797,-2.689958,5.6202793,-2.0882487,21.28479
8,-1.2507849,-0.26700982,0.2767924,0.2915877,-0.6750225,1.7853701,0.9385148,1.0308082,-1.0004821,0.7473377,-0.19244249,-0.48835605,0.22248551,-0.5246769,0.52669346,16.492981,46.60914,3.0584745,2.033062,7.8018312,2.0278225,-6.834836,-6.13853,-2.657014,2.910965,-0.24206811,2.1668632,9.614883,-0.6415748,4.9930286,5.839919,33.67295
9,-1.0964168,-0.105305225,0.31853813,-0.18226153,-0.30239236,0.9881337,0.8370403,0.7012152,-0.75424814,-0.37141955,-0.8324257,-0.3970665,-0.3665629,-0.19023836,-0.24580714,17.58302,75.41089,-2.3195434,1.5150068,15.972221,2.6308374,-5.836253,-5.3416333,-3.7544699,-9.519654,24.117096,13.065014,11.5858555,9.925423,1.601623,13.042853,38.32942
10,-0.9935256,-0.3342033,0.2737227,-0.11019388,0.29720682,0.07337203,0.52562845,0.18579218,-0.634444,-0.24678585,-0.60141236,-0.26680997,-0.29016548,0.023746166,-0.6369623,16.28471,69.81938,3.5339487,0.93049127,21.981491,-0.44951195,-1.4918239,-4.252052,-7.400017,-15.597955,23.592619,8.297212,6.39645,12.129379,-0.29124117,13.383192,25.958157
11,-1.3940568,-0.7874981,-0.064747274,-0.076165706,0.42148113,-0.7095964,1.2570728,-0.41588533,0.18632999,1.0989549,-0.37174687,-0.303521,-0.7591376,-0.15642942,-1.4498429,14.129729,-26.241161,16.92331,1.1841668,23.17567,-10.210011,7.1874943,19.498814,-9.178022,4.444254,8.750254,2.5763414,5.302131,20.804598,9.147836,18.922256,26.022503
12,-1.2570908,-0.29983786,-0.093416765,0.042005755,0.22270593,-0.87411386,1.193398,0.75430113,-0.1676265,0.09922492,-0.34868497,-0.3725049,-0.91625357,0.018698208,-0.50394547,12.588268,-60.30371,6.0530243,-3.381245,24.790434,-9.329828,14.682116,16.866707,-6.433071,-18.737396,13.439924,11.626048,7.4297285,22.411005,9.149653,7.4564285,34.615356
13,-1.1429363,0.057654493,-0.2007161,-0.22383794,0.19457717,-0.48600966,0.47947878,1.6535585,-0.54578865,0.41772512,0.07767181,-0.28846535,-0.60756177,-0.8285464,0.27717268,11.11725,-83.118744,-15.881311,-1.2209224,25.054253,-8.930972,17.948355,17.719185,-3.7130709,-41.057922,-4.207628,-8.722788,5.071575,18.83878,13.736221,-5.5003633,45.385025
14,-1.5569129,0.04054939,-0.14023913,-0.64692473,0.1044214,0.18790141,-0.21825367,1.7738676,-0.5078436,0.9278229,0.25348526,-0.104453415,0.20277652,-1.9413455,0.52913666,10.374542,-31.270172,-20.347233,0.6697519,23.71254,-9.321637,17.541615,28.934296,-10.807322,-52.910057,-35.17593,-43.471497,4.814578,-2.3317432,25.43067,-6.3026457,58.350967
15,-2.5519938,-0.007323116,0.051355463,-0.6682173,-0.29858172,0.5774236,-0.9337237,1.8459914,0.24342331,0.8681725,0.14319392,-0.11168566,0.95213175,-1.7850821,0.39040604,10.364225,52.94744,27.159193,-6.2776012,20.59917,-9.117039,16.879253,25.925999,-22.280893,-50.611305,-50.386955,-71.419075,10.039798,-39.024704,20.12997,5.291458,67.902824
16,-3.071445,-0.049661994,0.22282451,-0.39968637,-0.5041275,0.7336749,-0.8222263,1.4922638,0.81548655,0.037991606,-0.20155996,-0.06176044,1.3342192,-1.7014624,0.55742013,12.17266,173.1359,68.800964,-14.033743,9.789665,-6.8088036,17.062607,37.742767,-17.103245,-45.225677,-31.539537,-37.915684,6.0883837,-66.567764,17.821772,5.105494,72.80113
17,-3.3941014,0.0021386174,0.35831118,0.112674,-0.64103746,0.6937767,-0.37291747,1.2523502,1.1333485,-0.96467453,-0.440409,-0.24826503,1.5544698,-1.3635886,0.6073493,14.585715,260.91437,73.74489,-17.112312,-2.3441076,-4.1983795,19.833538,46.273926,-3.3036535,-43.246117,3.5539742,12.377927,-19.251177,-97.09842,9.882526,2.3898952,77.42108
18,-3.389212,-0.06874917,0.3823277,0.5180669,-0.5303742,0.6173855,0.1720728,1.4745232,0.8846829,-1.6805604,-0.39322254,-0.5288173,1.491997,-1.0065382,0.509827,17.095375,332.12354,46.198914,-14.986574,-13.942951,-1.1223526,23.951046,54.696487,-0.42211866,-41.652756,26.977192,29.773964,-36.39369,-109.03453,8.198087,-1.7921114,72.944855
19,-3.3240943,-0.08854478,0.40859863,0.7424844,-0.60016024,0.5431582,0.7680216,1.3926187,0.48586428,-1.9426785,-0.5521052,-0.892123,1.3846961,-0.6362244,0.5106568,19.036041,545.98944,5.9616957,-5.6818604,-24.761349,1.0389395,28.85257,59.445683,-23.381947,-35.094612,50.500698,52.04286,-59.930767,-115.21895,12.440394,-1.0266471,77.41385
20,-2.8741531,-0.22596583,0.37099317,0.67638373,-0.9105408,0.44024748,1.2787023,1.0255752,-0.016459696,-1.3362217,-0.3905533,-1.0846785,1.1061696,-0.5063907,0.58520365,19.683065,832.9874,-45.12871,9.972134,-21.520998,2.0542045,31.848167,37.0467,-36.76745,-18.913029,58.130608,-39.95907,-110.0636,-109.403175,9.371054,3.4886818,84.88063
21,-1.9720666,-0.28918132,0.26877755,0.37491277,-0.9785546,0.40574643,1.8454559,0.9101975,-0.6165645,-0.81124866,0.30852175,-1.2388823,0.9741957,-0.68429345,0.84410226,20.51005,759.68555,-96.867294,27.878014,-15.723862,2.7279844,33.383804,24.023737,-22.462585,2.9826522,54.46286,-94.98431,-166.88646,-96.144295,3.5870636,-9.648192,79.549034
