,0,1,2,3,4,5,6,7,8,9,10,11,12,13,14,15,16,17,18,19,20,21,22,23,24,25,26,27,28,29,30,31
0,-13.416779,-7.5887623,-9.994066,4.5718317,-3.600152,0.09781244,-5.4380884,1.1357,6.4694395,6.7801404,-1.8729502,2.5778267,-4.9636474,-10.888169,2.1770175,-13.396305,13.911821,9.358539,0.31138414,1.5169675,5.431114,-3.4490626,7.022234,7.491949,-7.235999,-22.930902,3.4916337,-3.1600463,1.6293175,10.252388,-6.8354464,73.63037
1,-2.064404,-3.7614942,-5.629255,0.7139324,0.6733463,-3.2648933,-8.046627e-05,3.6323037,0.60119104,4.1120114,-0.07558033,0.31395185,-1.9811535,-1.603612,1.7373462,-11.666432,5.6616344,6.308842,2.5077677,1.6203376,-2.4650388,1.6228096,3.3709106,-1.1768215,-4.296081,-15.8595,0.7499809,1.5366306,6.4410343,2.4214354,-2.8722234,71.91166
2,-0.39070797,-2.9569259,-2.9435365,0.68118966,0.3997524,-1.7171295,0.44148722,2.5157487,-0.49264207,1.4458402,0.28219333,0.41404527,0.29024738,0.29175088,0.97229123,-8.316597,1.8084353,4.59116,0.21413279,0.9417269,-3.4509559,2.3261237,1.0025158,-1.9909303,-0.7479125,-3.2912455,-0.38090515,3.792717,2.331462,-1.103879,-1.4020575,60.9577
3,-0.535202,-2.1999092,-1.6795027,2.079377,0.11328593,-0.14237978,-0.0703441,1.6190249,-0.024835508,1.5313087,-0.162509,0.9488763,0.52733535,-0.42462867,0.49712092,-3.9004266,0.5840293,5.3250275,0.048083365,-0.03557855,-3.3731132,-0.8552147,1.7970557,-2.3560543,0.8327762,2.9749346,2.1169245,1.4920635,-0.030641675,0.9292741,-0.60792613,46.84655
4,-0.8701274,-1.664793,-0.89354944,2.6114223,-0.006460355,0.65861034,-0.5299759,1.0702275,0.1374104,1.4976189,-0.14006874,0.94142747,0.45145404,-0.7896486,0.49315274,-0.6900202,1.733063,8.895428,-0.98335826,-2.1993237,-2.1604013,-4.1132197,5.7230167,-1.4868894,1.8510761,4.1706,2.7654042,-0.7660556,-0.43935597,2.7745457,-2.3248363,36.961388
5,-0.7894255,-1.1804503,-0.67234915,3.137732,-0.188295,1.0647491,-0.42839873,0.8967056,0.157255,1.6334615,-0.030576672,0.47948474,0.46726456,-0.24227655,0.44087687,1.236273,2.5836606,10.807926,-1.273648,-5.847309,-1.4429115,-5.3293605,8.168185,-1.0466571,2.0426548,5.150098,2.4503236,-1.3944681,-0.9682571,1.9882488,-2.9983566,32.583763
6,-0.6634085,-0.8523147,-0.3277892,3.9270108,-0.27777582,1.37333,-0.18281215,0.64241695,0.15927944,1.4489087,-0.30179155,-0.055967953,0.39347973,0.90270084,0.39062083,2.61902,0.32158205,9.451743,-3.046225,-10.89776,-0.29996526,-5.1812086,9.010798,1.055007,1.7648214,12.144927,1.7960669,-0.6646509,0.3789668,-3.8074577,-1.9685285,30.671936
7,-0.8174273,-0.5439576,0.34989628,4.716237,-0.4179723,1.391613,0.026155552,0.35635355,0.33321404,1.5104744,-0.54543704,-0.49203137,0.4938833,1.112852,0.9975157,4.1747956,-0.89831626,6.119999,-8.163871,-17.554409,4.6875286,-6.361227,11.24315,3.7481656,0.2218689,22.555727,-0.17743114,1.5788763,1.0068067,-8.639349,-4.441824,29.550613
8,-0.11668415,0.11103605,-1.6732082,-0.19050926,1.1579459,-3.4969835,-0.17144388,0.59293103,-0.6723368,-2.859621,0.54965234,-0.6895199,-0.8472938,0.4102295,1.728278,1.6068127,-2.930667,-5.803593,-13.258173,1.3874761,11.586187,17.488182,-1.0626342,5.578695,0.11190865,3.4798644,-5.1299243,9.933126,7.9343543,-3.393574,-10.766058,-73.23552
9,0.2529095,-0.20212366,-1.470775,-0.2793969,0.71143883,-1.6752392,0.13554919,0.72571576,-0.82810843,-2.227692,0.018998308,-0.73380053,-0.39222372,0.43112648,1.066139,-0.39455688,0.72481537,-4.1799808,-18.803339,2.3216317,9.535631,9.596768,-6.3073645,5.0926714,7.7889447,5.9273043,4.003063,9.740523,10.769653,-5.9876394,-10.09527,-65.44043
10,-0.23781832,-0.22576945,-1.4032108,-0.10364073,0.14805421,-0.60808957,0.33104768,0.68081844,-0.51811683,-1.512525,-0.0051713167,-0.06547518,-0.13612893,0.16284259,0.43753713,-0.9318743,7.405152,-2.584057,-9.6619625,1.9310054,10.895421,4.99255,-7.959193,2.9193096,11.058734,7.2154255,1.4355721,3.4578435,3.2374463,-4.366193,-7.40804,-54.270218
11,-1.2783749,-0.061089143,-0.7943596,0.24050838,-0.54875135,-0.48724577,0.14740492,0.48342124,-0.07520987,-0.5083009,0.20768239,1.3159413,0.16538449,-0.03733774,-0.10586597,-1.8536072,16.651016,0.6963317,3.03019,-1.2877091,16.280104,5.551921,-12.641677,1.5609465,1.7338381,-8.625654,-13.827959,-12.120799,-2.23237,13.833031,-2.0000544,-41.53051
12,-1.3127172,0.15443295,-0.29967695,0.21538793,-0.8035804,-0.25786322,0.02101755,0.60660696,-0.01114814,-0.12119297,0.09921752,1.2959931,0.25854826,0.12433688,-0.53830564,-3.118496,18.361092,0.85740674,-4.823924,-2.1756973,17.285488,3.9848394,-8.904631,2.5788536,2.3282843,-23.487333,-10.904906,-15.262062,-3.083477,17.80824,3.8280728,-44.592175
13,-1.200633,0.14219189,-0.2630431,0.13490236,-0.83842725,-0.20394222,-0.026007414,0.67943585,0.022329105,-0.096501246,0.009227537,1.0676527,0.44452667,0.21609701,-0.6485566,-4.7264953,24.073267,-2.1795106,-10.143677,-1.7798014,16.0695,3.164846,6.2626543,0.30545574,9.142224,-24.741064,-8.510437,-16.329319,-6.075836,13.072529,5.4037995,-52.065205
14,-1.1101772,0.070428744,-0.26366073,0.0864716,-0.74205685,-0.28434932,-0.07328497,0.64975333,0.05779715,0.42408252,-0.06538017,0.730181,0.5848375,0.21607664,-0.5817603,-6.054089,25.049398,-4.799618,-14.164444,-1.3115847,13.557894,4.8641863,16.609291,-1.3582513,22.563887,-39.949436,-3.54972,-13.669487,-16.068277,14.061296,5.8945637,-57.094353
15,-1.0404717,-0.062319607,-0.33370507,0.06980603,-0.5423948,-0.37874123,-0.037013948,0.7238791,0.08273684,0.90148604,0.043750238,0.4229622,0.6095415,0.15847513,-0.5335483,-7.223262,27.873789,-4.4280367,-18.870499,-0.21946976,10.5433235,7.8009205,25.605268,-3.7276912,32.99871,-52.334602,5.0287457,-9.375306,-17.82808,18.719805,8.253061,-59.815777
16,-1.0213702,-0.14613512,-0.5073786,0.016364582,-0.2844851,-0.403666,-0.041818045,0.67917514,0.076051645,1.2705178,0.07404524,0.26350152,0.6314115,0.099283904,-0.42413262,-7.9469843,30.288984,-0.15809926,-3.542013,2.0321434,9.32191,10.869285,19.607433,3.169722,33.459435,-59.11703,8.018613,-6.785613,-24.50226,24.5864,9.304644,-62.363808
17,-1.0041041,-0.2598391,-0.7094471,-0.026889067,0.07158038,-0.3544156,-0.0045702057,0.72709763,0.13526422,1.978158,0.06335904,0.20894629,0.7963977,0.096838206,-0.3361569,-8.249838,36.240803,11.3326,13.934083,5.421526,5.3171787,11.879316,7.639328,2.2343187,-0.11153829,-81.44759,9.343279,-3.6883256,-40.239834,29.696136,8.929011,-70.34384
18,-1.066653,-0.41255438,-0.7308665,0.008022098,0.22596592,-0.20406893,-0.035372593,0.6045779,0.24435037,2.7169023,0.062611565,0.19279182,0.96536,0.03558846,-0.22050852,-8.918546,53.197678,19.704655,4.2728543,7.404417,4.0330925,8.748352,3.0399442,2.5394614,-25.947006,-105.42709,16.60812,1.7920531,-64.57987,40.12486,5.192566,-76.41077
19,-1.0081521,-0.61621106,-1.010515,0.11660956,0.33146343,-0.032523837,0.07460463,0.6275365,0.37180012,2.3403401,0.09038091,0.19566661,1.023778,-0.019581841,-0.2140222,-9.955476,67.55231,47.138786,66.406715,2.8319442,2.5072436,4.241816,4.2308917,-0.68780607,-29.517948,-93.31407,22.534924,1.180524,-78.62571,52.962135,8.357862,-76.01952
20,-0.90596753,-0.89480114,-1.1080154,0.29239637,0.3626619,0.06514354,0.23161787,0.5597087,0.41772687,2.3991842,0.1253283,0.16496414,1.1241891,-0.078802764,-0.21521449,-10.75931,82.05969,76.06688,77.00485,-5.288932,3.1624496,-6.7573624,1.2014438,-3.2658076,-23.530048,-98.564095,33.514458,0.97951096,-94.372215,61.189255,9.937876,-75.24498
21,-0.810408,-1.1298103,-1.0682275,0.47244477,0.37028515,0.077819884,0.13593122,0.5076636,0.40380502,2.487917,0.25179288,0.11012107,1.1708795,-0.12881438,-0.16721183,-11.412561,107.91238,102.56067,52.72918,-16.118835,7.1570196,-25.29728,-1.2368178,-3.4152288,-2.9801826,-103.79499,48.36328,3.0156965,-95.23973,58.387184,11.906993,-69.841896
