,0,1,2,3,4,5,6,7,8,9,10,11,12,13,14,15,16,17,18,19,20,21,22,23,24,25,26,27,28,29,30,31
0,1.5216713,-2.116537,-2.4395156,0.81532174,0.91406494,1.7920005,-0.6595633,0.7777298,2.231746,3.1431384,3.925033,-0.232863,0.7088421,-0.7591888,1.057488,15.539946,-9.064281,5.7966495,5.0819635,-0.27882996,-16.799973,1.0675863,3.3829148,0.24169645,-2.9784627,2.4836786,-7.450421,-3.0453758,-3.1317077,-0.51821923,-2.4326382,34.442406
1,0.52881986,-1.5868406,-0.9807276,0.13917193,1.0790358,1.1599079,-0.06377635,0.28132924,1.486108,0.35279524,1.2233796,-0.8118726,0.31754178,-0.9768617,1.2966586,14.0440035,-6.3499513,6.915746,2.7009788,0.5928969,-21.523226,3.30132,1.6977512,1.6543058,-3.726272,6.956288,-3.1919098,-1.3108801,-2.347996,1.41279,-3.5243478,23.444244
2,0.47373003,-1.3450494,-0.33487502,0.16176584,0.42928565,0.7634735,0.12583584,0.4702167,0.8470738,0.3405957,0.568235,-0.9857623,-0.04747759,-0.86688024,0.8456594,12.616291,-4.8123364,8.233673,1.1779733,3.4052742,-31.556015,2.5260785,0.9950404,1.0645905,-3.7353928,5.728878,0.2154151,-0.8542522,-1.0776339,1.579168,-3.4369285,15.784977
3,0.3849195,-0.865218,-0.18200573,0.17794268,-0.6082533,0.7941676,0.2700202,0.5644699,0.49204785,-0.32611537,0.40446547,-1.0171853,-0.37569842,-0.63028616,0.6965814,12.357703,-8.073489,6.524242,1.1511647,3.1472974,-31.606092,1.2626089,0.5489601,0.86640763,-3.2178252,7.1623936,1.5453457,2.0627077,-0.56214315,1.3893372,-2.5692527,13.476244
4,0.25035828,-0.5080558,-0.1491897,-0.104371995,-1.2285007,0.7841218,0.12689264,0.402551,0.4064543,-0.58126026,0.37269974,-1.0932957,-0.47007826,-0.23339115,0.5779676,12.56327,-10.592835,3.6376944,1.6441925,4.0281005,-19.819315,1.3177104,0.74420583,0.072521575,-1.9256104,8.404541,1.8465232,4.0388017,-0.56926596,0.8493908,-1.8606962,12.372279
5,0.18357481,-0.39201725,-0.02462093,-0.22063929,-1.4919314,0.7325479,-0.1375981,0.015109787,0.3730348,-0.12394182,0.41038445,-1.1528562,-0.53112084,0.24195974,0.32900232,13.323333,-6.3158855,2.5130026,1.324325,0.98346776,-13.427758,0.9532627,2.440821,-0.2249793,-0.71651226,7.3674803,2.0392776,4.463866,0.9823943,-0.080611825,-0.13144316,17.668491
6,-0.2769675,-0.23912832,0.099997334,-0.56274134,-1.5706774,0.491386,-0.2894088,0.104082756,0.5737345,0.006142378,0.5067417,-1.0950911,-0.47639474,0.3953233,0.060485177,15.745825,11.952127,1.8968945,0.39119366,-1.8839923,-14.939075,1.0667102,6.432166,-3.8900473,1.3134149,6.2774243,1.5509706,6.216278,3.485471,0.46266848,3.1131327,33.88431
7,-1.2867966,-0.04132781,-0.09247186,-0.4022279,-0.9384744,0.044715747,-0.31171843,0.074772425,1.5836321,0.15252692,0.39805737,-0.7834455,-0.2818183,0.31789985,0.14709826,16.406319,45.2939,-3.8263428,0.78693855,-7.8415823,-13.613735,1.922024,7.220036,-6.9043155,6.5853686,3.4635477,1.753764,6.0179343,3.5479472,2.2510521,5.1403413,39.72554
8,-1.1452557,-0.048612498,-0.0698671,-0.12293049,-0.37883538,0.1541926,-0.3483784,-0.4939131,1.7028338,0.46705934,0.2636145,-0.2340396,0.073088996,0.29458278,0.46900362,15.204472,62.298023,-12.1192045,0.913454,-13.96609,-12.161451,-0.20451294,4.7396846,1.2712862,4.086465,-1.3325291,3.3017027,-2.0486844,0.7332433,3.2344136,3.5009153,29.503597
9,0.2057457,-0.20597778,0.0713991,-0.38844877,0.69064766,0.91531074,-0.3438496,-0.12320873,-0.8411215,0.694952,0.24150233,0.9204591,0.39404783,0.13025254,0.7279957,12.839401,36.576763,-13.842111,-0.22215153,-20.191383,-14.038571,-7.4594693,4.655175,1.7150896,-18.923492,-10.312762,-0.21436572,-27.144957,-1.9357908,4.9130964,1.4495901,25.354986
10,0.4285018,-0.03190226,-0.12259664,-0.08810449,1.5970306,0.17980029,-0.3614842,-0.33307162,-0.5420601,0.4901427,0.07197028,0.590553,0.3114695,-0.012402347,0.48356646,12.052493,3.2538807,-15.3350935,1.1753095,-12.233632,-19.760403,-4.8904905,7.5383654,1.2342665,-15.744849,-17.358881,-2.8704238,-29.986044,-1.4739883,6.7008686,2.6346712,32.217747
11,0.46495315,0.2569238,-0.15581782,0.02081855,1.552685,-0.30377966,-0.20731254,-0.30834925,0.4903488,0.44476044,-0.069226995,0.14519162,0.14977768,-0.17683472,0.20806873,11.592312,-8.455927,-12.793934,2.4126706,9.766754,-19.964022,-1.055648,9.101599,2.1724644,-4.8556056,-24.554182,0.8493387,-23.554869,-0.92942846,9.9604,3.295762,39.27837
12,0.00085860037,0.34864146,-0.15970638,0.11874071,1.0074942,-0.15978453,0.0628684,-0.06461436,0.91792333,0.49347174,-0.0036861806,0.103456,-0.040278804,-0.34536436,-0.01600623,11.499441,-3.4694328,-6.467477,4.030963,38.930325,-15.118931,0.40562618,11.153636,-1.3330107,3.7417703,-33.04649,2.8039916,-17.63875,0.1649286,11.719578,2.9509964,47.430878
13,-0.49568748,0.30105272,-0.1090668,0.27944425,0.07145176,0.19966102,0.25931036,-0.056816507,1.5709119,0.58091295,0.2667687,0.19900967,-0.15417604,-0.3822883,-0.32768112,11.933809,26.060743,0.47788307,2.0053694,54.605274,-9.6156,2.3449144,11.492788,-5.263131,6.559545,-43.4544,-3.4184701,-16.157661,1.6480778,8.32674,4.0860953,56.521065
14,-0.28232983,0.10955481,0.0039920937,-0.10582033,-0.7255647,0.6424826,0.23086663,-0.3373595,1.7305713,0.67625827,0.44783947,0.18298684,-0.18216577,-0.39268696,-0.43649897,13.110981,52.83391,3.9186711,-5.748861,55.384407,-4.649315,0.89503807,12.474493,4.4555535,6.9891095,-48.985203,-5.072586,-17.331402,-1.0857298,8.790025,4.3137007,62.046913
15,-0.0033766744,-0.3060786,0.06541476,-0.48629114,-1.0403436,0.85321575,0.07263784,-0.6536122,2.0264258,0.7136029,0.557237,0.45183,-0.20717186,-0.31644493,-0.3682669,15.102965,71.259575,6.771345,-12.287302,32.044807,-2.4197953,-2.3991108,12.035398,12.233433,3.7237277,-54.462063,-3.9949079,-23.632107,-3.9873166,7.207699,1.6863885,63.23774
16,-0.11543262,-0.7097251,0.035823524,-0.4978325,-1.3523619,0.7447535,-0.094008446,-0.83678573,2.348188,0.7188385,0.6936191,0.8272185,-0.23645394,-0.14222227,-0.16846624,16.961115,72.480034,9.496708,-13.181556,4.169235,-0.11094392,-5.7826853,9.016182,8.188093,-2.8431385,-59.49841,-0.2598124,-32.15995,-5.459627,7.7506013,-6.7622733,60.306747
17,-0.23577042,-0.8522114,0.054684516,-0.7516545,-1.8527492,0.6739481,-0.20916682,-0.85366035,1.7442479,0.707572,0.73099005,0.68822896,-0.18311003,-0.1104109,0.027733233,17.570908,27.062527,5.793165,-18.986742,-11.405676,1.3892114,-12.246453,6.2918887,5.582991,-3.159644,-52.618763,9.342762,-32.94908,-12.0158205,21.442593,-16.118855,63.867336
18,-0.7274894,-0.8265209,0.016852804,-0.75823945,-2.1528165,0.64127874,-0.24513388,-0.7558415,1.2036144,0.5481962,0.6517843,0.3801807,-0.11710278,-0.08877909,0.18357691,17.839905,-43.973064,-2.0643537,-19.449778,-9.192152,6.0071254,-16.928926,-1.5927149,1.670683,2.3440726,-48.68039,22.13113,-23.85158,-15.974589,30.676918,-16.341805,67.48543
19,-1.4076996,-0.74306864,-0.11219469,-0.2625408,-2.0158663,0.6373164,-0.1950162,-0.55866665,1.0762287,0.2942959,0.48575783,0.32000294,-0.0919749,-0.068019696,0.3384897,18.459858,-165.54828,-13.88698,-7.544203,10.92936,12.569678,-20.603584,-19.506996,7.2129903,8.599691,-51.890106,56.912727,-13.717121,-13.916645,42.3264,-12.092891,64.56437
