,0,1,2,3,4,5,6,7,8,9,10,11,12,13,14,15,16,17,18,19,20,21,22,23,24,25,26,27,28,29,30,31
0,2.5411258,-0.16187361,-0.6276458,-0.33291855,2.4430053,-0.7019804,-6.4259086,1.2629632,-0.90969795,-3.1148095,1.1209372,-0.3043949,0.6324352,1.2026376,3.636488,5.8907685,-5.930606,-2.6352158,4.3919005,3.4936252,0.78065336,2.380052,7.5815005,-1.5561073,5.456202,-0.34383976,-1.4201709,2.9291582,-0.36505568,-2.1939478,-4.3773227,-72.83382
1,1.1319814,0.5664897,-0.83723354,-0.071208455,-0.6544541,0.19975236,-1.9284617,-0.005680052,0.15665455,-1.743014,0.058513835,1.6178436,1.6402417,0.4464984,1.354214,3.6023157,-5.8033576,-1.9118248,3.5307333,3.4335632,8.433629,1.2050929,1.3637583,1.0587779,3.5878582,0.9694355,0.7290412,-1.3458385,-2.522753,-0.21781877,-1.176013,-59.301334
2,0.58047163,1.0977532,-0.7909251,-0.21126094,-0.7438624,0.40382528,-0.25600064,0.4337676,0.291696,-1.2344626,-0.3759865,1.7738897,1.1327373,-0.13716294,-0.33335102,3.5177453,-3.4452064,-3.7846646,3.4673212,5.497158,10.423166,0.39208487,-4.2523737,0.6535261,2.5153682,1.2789699,2.5429282,-3.1584885,-2.46356,-0.029810553,4.566392,-55.38556
3,0.31953332,0.7893674,-0.6043306,-0.17930116,-0.76826453,0.30457863,0.19884907,0.7403015,0.26010436,-0.54563314,-0.57156044,1.668827,0.5739195,-0.42336503,-1.0318799,6.050362,-2.0745597,-8.788523,3.1339796,5.616309,11.08645,1.4199743,-12.719512,0.04082483,4.6203346,-0.6050094,4.341643,-3.354386,-2.0865586,0.21945514,7.814527,-57.303085
4,0.47350702,-0.01576158,0.31370923,0.4086846,2.8679512,0.028190726,-0.16932315,0.12036313,0.33638585,2.6423507,0.5659872,0.5575478,-0.22847976,-1.5419217,0.5922436,17.51743,-8.514939,-19.643328,-8.021121,-0.3440503,1.4202447,-0.32369566,-11.703552,6.385857,2.3876886,-14.846895,-2.2777948,2.141118,1.735939,8.706411,7.6068716,15.678998
5,0.6835049,-0.45999122,-0.07244942,0.26238558,2.5280557,0.058058824,-0.38226357,-0.21396405,0.24673441,1.2951028,0.5325417,0.73638254,0.09875554,-1.0711355,0.055561114,12.3133335,-5.522356,-13.714901,-6.3596206,3.245696,-3.7162297,1.1771629,-5.9073076,4.284686,1.2260814,-6.106709,-3.9664645,-1.7234448,0.7704075,7.141851,11.015397,29.521585
6,0.5770525,-0.54618955,-0.3146619,0.5020551,1.6969628,0.13720791,-0.40207615,-0.43403137,0.19790639,0.24700323,0.398036,0.43086424,0.3523484,-0.84871835,-0.5990931,7.119615,-8.812356,-4.8001704,-4.5564966,4.081277,-4.767703,-0.004250226,-5.2552433,3.558245,-0.9934608,0.25257355,-1.6447643,-2.454727,-2.0406582,6.565459,13.488064,43.601555
7,-0.033074073,-0.3645749,-0.46885988,0.65243316,1.4550407,0.1683199,-0.6162652,-0.29338187,0.26983812,-0.18115619,0.25922754,0.10272882,0.32936272,-0.6994904,-0.6841558,4.8685303,-10.916523,-1.9427676,-2.8120296,2.5319612,-3.2583153,-1.1864828,-8.294346,2.4502842,-10.815385,2.7714775,5.5728116,-1.0461444,-1.0749198,8.360323,13.252686,50.372402
8,-0.29551855,-0.00032536685,-0.5816206,0.6639469,1.3410219,0.14490637,-0.59975445,-0.15467961,0.15932155,-0.071868636,0.35191512,0.11250928,0.301416,-0.49128583,-0.5449957,6.173624,-8.495928,-9.33083,-1.4175286,0.020616325,-0.61830765,10.5061245,-0.50669706,2.2251494,-14.6505995,3.1370218,3.013936,-1.9079661,0.7389462,12.027607,13.575564,44.568752
9,1.0420338,0.06601311,-0.47464588,0.64945793,0.33124655,-0.055266287,0.07357233,-0.069721386,0.2894294,0.6334362,0.51733285,0.1825198,0.19847447,-0.19268318,-0.4629894,7.9402475,-7.7946506,-8.799654,0.1691089,-0.93067086,4.371533,1.3650364,47.892166,3.162016,14.664879,-2.4301412,-18.904732,-7.314027,-1.2129422,13.591925,13.360256,38.505917
10,1.549405,-0.20010771,-0.6093146,0.60976785,0.3247239,-0.19570364,-0.155383,-0.05738675,0.35421318,0.63004076,0.3435206,0.08586836,0.15979932,0.08512319,-0.07523648,7.2474627,-5.4543595,0.75298715,3.6282234,-1.8283457,4.8402824,31.557735,48.07793,3.5345235,21.24202,-4.910675,12.710471,-5.923551,3.25779,13.196854,6.7984366,44.525425
11,2.003567,-0.22190283,-0.53294754,0.675786,0.39452094,-0.27153188,-0.9681159,0.076449946,0.3821764,0.5329289,0.26862723,0.12384743,0.2142196,0.3082346,0.6285461,5.1102433,-12.404002,5.7930636,5.258344,-2.6587708,4.968047,103.22992,28.049152,6.2444086,17.237198,-7.475269,38.017944,-6.737059,8.270417,11.148775,-7.8545375,56.82039
12,2.218743,-0.088175826,-0.40879822,0.7978216,0.32136396,-0.21067184,-1.499423,0.22560713,0.52899724,0.36611432,0.30749744,0.12225656,0.2654077,0.43512163,1.0447651,3.7189584,-26.479282,8.257954,5.3603163,-3.6571593,4.787191,151.6071,4.519365,12.026339,13.914177,-10.452233,52.147892,-6.7363043,4.8916893,8.600792,-20.34968,64.49631
13,2.163442,-0.14730738,-0.3884094,0.8362414,0.45630816,-0.11230169,-1.3609645,0.2121344,0.50565773,0.11630606,0.49460196,0.061816923,0.2987788,0.43208244,1.0193954,3.9263704,-36.22807,10.468564,5.576712,-6.5090194,4.0662107,105.39844,0.32930535,24.249804,18.767635,-10.370867,67.268135,0.06865846,0.6893298,6.9640803,-24.47186,62.504482
14,1.9974904,-0.19807135,-0.27406397,0.89433956,0.60040873,-0.081352964,-1.1751958,0.1405246,0.440215,-0.013644493,0.50260156,0.097540595,0.42788887,0.35885414,0.71056336,4.044456,-41.827164,10.357243,4.7912526,-13.2650795,4.2753544,68.47236,2.2953122,26.95604,5.652291,-9.992956,78.2008,6.154381,-3.2540724,6.0994716,-19.673763,62.04023
15,1.7138921,-0.291109,-0.15575814,0.9251214,0.3766574,-0.037774365,-0.73616827,-0.027064938,0.23510693,-0.06381879,0.044131167,0.20345782,0.49614745,0.39510185,0.8431547,4.308817,-40.73509,7.393487,2.6962037,-20.089796,1.4674919,-6.554683,8.597514,27.415352,31.86199,-10.995726,-34.67815,-1.448338,-8.737783,4.926318,-30.100393,64.22235
16,1.3133041,-0.44343197,-0.09818847,0.87816787,0.26416045,-0.012811765,-0.13757055,-0.16338971,-0.14972454,-0.05215592,-0.17883982,0.3357361,0.62643814,0.37302968,0.91789216,5.0859866,-33.158558,7.0040913,0.6517048,-38.132996,-1.0903993,-13.563561,38.265892,27.102749,43.03492,-11.188284,-104.77016,-7.6568255,-6.8343215,6.778262,-33.43865,66.404594
17,0.99942684,-0.5932595,-0.04657859,0.7734425,0.02065245,0.0049602767,0.29437587,-0.20748176,-0.30507076,-0.065598615,-0.35713077,0.4244142,0.8302892,0.36357942,0.8248195,5.8044143,-27.988958,5.3528376,-2.4966354,-58.08463,-3.705305,-26.678318,64.21569,13.4104805,37.983784,-12.0477295,-211.35474,-21.60083,-9.998448,8.946942,-18.15175,63.878834
18,0.85315114,-0.69337285,-0.02246496,0.7380025,0.07701849,0.010273851,0.24970855,-0.1822883,-0.18520816,-0.106268,0.110730805,0.40540314,0.96479833,0.30752033,0.6326877,5.6263933,-28.998283,14.833739,-2.453382,-70.18333,-4.8538084,23.97478,84.24763,4.555592,27.343342,-12.644046,-71.88245,-35.756954,-8.549647,8.697089,-4.255705,61.47023
19,0.58311534,-0.7075312,0.040802825,0.71699345,0.053277515,0.024441386,0.07362752,-0.1786856,-0.2030488,-0.103194974,0.22450452,0.39113584,1.0026977,0.22567065,0.58796006,5.70718,-23.334064,27.171562,-3.9788814,-63.483147,-4.909675,54.500347,82.58227,3.48909,25.544502,-15.439516,22.671173,-89.28097,-8.388915,7.99143,0.08574237,58.248913
