,0,1,2,3,4,5,6,7,8,9,10,11,12,13,14,15,16,17,18,19,20,21,22,23,24,25,26,27,28,29,30,31
0,2.7631133,-0.16105111,-0.6527545,-0.28543702,2.4626095,-0.6499159,-6.5822525,1.178286,-0.94222844,-3.2286038,1.1046741,-0.3939685,0.61387944,1.3139474,3.6319728,5.748376,-6.366137,-2.7464113,4.57499,3.5828037,1.0707955,2.294401,7.8348684,-1.4599847,5.407155,-0.1922927,-1.5496534,3.1764393,-0.34182265,-2.217952,-4.500356,-73.940865
1,1.3378655,0.54369,-0.9213845,-0.009548477,-0.53399813,0.26242718,-2.0224738,-0.111219555,0.16816077,-1.851272,0.051751982,1.5844071,1.6647615,0.46701434,1.2398521,3.4113092,-6.618564,-1.906138,3.8202937,3.536316,8.3864155,1.0443707,1.6239253,1.2666209,3.417797,1.2209653,0.51829904,-1.1885693,-2.4701421,-0.12843692,-0.927551,-59.91764
2,0.69023126,1.045978,-0.9069091,-0.16438577,-0.6376758,0.42605054,-0.3085341,0.36204004,0.33463064,-1.3182627,-0.38342285,1.7929208,1.1892283,-0.1631866,-0.3991882,3.3176827,-4.4595957,-3.519713,3.6598287,5.5616016,10.2824,0.29192168,-4.002714,0.8493306,2.2206671,1.4944881,2.253179,-3.0423734,-2.5352426,0.1883675,4.6958632,-56.20433
3,0.39059454,0.77004313,-0.65086097,-0.113923155,-0.7389929,0.31796065,0.18862236,0.6671696,0.2937539,-0.58297396,-0.58119017,1.7412239,0.60407454,-0.46791866,-1.0693787,5.983176,-2.95842,-8.218894,2.9302475,5.6863394,11.254196,1.3374188,-12.578404,0.3141388,4.165193,-0.46580023,3.9834268,-3.4246857,-2.1840992,0.4451728,8.042501,-57.484776
4,0.5151766,-0.029269928,0.22664353,0.47743285,2.743732,0.03771289,-0.22443216,0.10771577,0.34158325,2.5333457,0.45071346,0.68433493,-0.21951394,-1.481261,0.4061879,17.411278,-8.427849,-18.454689,-7.754409,-0.33335966,1.9742006,-0.37192377,-12.337905,6.369909,2.581183,-14.385867,-1.696414,1.6034515,1.572151,8.361023,8.487164,11.438897
5,0.6997711,-0.44601,-0.04004283,0.32643342,2.4741135,0.07124079,-0.4514354,-0.23322684,0.25442374,1.3018771,0.49692586,0.81698155,0.08554027,-1.0168034,0.04743319,12.602647,-5.2739425,-13.388122,-6.6606355,3.0394037,-3.2443485,0.88554037,-6.472879,4.3704205,1.3109839,-6.1081605,-3.6990128,-2.097106,0.8328599,6.8792214,11.404063,28.590656
6,0.5853548,-0.537381,-0.30795065,0.5587493,1.6966555,0.14147782,-0.4323971,-0.44839376,0.19834955,0.25033846,0.39064333,0.4834471,0.3390201,-0.8143562,-0.6140689,7.4367533,-8.535564,-4.9519353,-4.600183,3.8372526,-4.6933517,0.112149805,-5.3632627,3.5874174,-0.90117115,0.2409844,-1.3352375,-2.7196875,-1.9942943,6.397755,13.865768,43.690063
7,-0.010951651,-0.37095967,-0.48235288,0.7069449,1.4384656,0.170412,-0.6271771,-0.31779024,0.27067727,-0.18703265,0.27857336,0.12149215,0.32355896,-0.6942323,-0.7388888,5.048819,-10.526093,-2.1931148,-2.635417,2.291028,-3.1485555,-1.3243314,-8.461352,2.4540906,-9.728546,2.807316,5.848578,-1.0725483,-1.0551856,8.356898,13.824803,50.79863
8,-0.27659434,-0.014382486,-0.6184809,0.70664376,1.3067182,0.14919454,-0.6003201,-0.17348596,0.17647575,-0.05287933,0.37208053,0.13965988,0.29454708,-0.4883063,-0.5811976,6.303254,-7.7601957,-9.145967,-1.0621057,-0.1941796,-0.4009084,11.446212,-0.12029757,2.428255,-12.80323,3.0612721,2.7299092,-2.0303738,0.39928994,12.159031,13.975288,44.493896
9,1.2180961,0.064166844,-0.46893498,0.7124048,0.27288455,-0.0593412,0.07768844,-0.07694556,0.3433559,0.68270785,0.5655003,0.19303545,0.17399584,-0.16596931,-0.5348537,8.143286,-8.785589,-8.422749,0.30528933,-1.2778349,5.0347877,0.3261961,51.043602,3.466939,21.333977,-2.932324,-22.971441,-8.157442,-2.179411,13.634296,14.052958,37.135963
10,1.6490816,-0.15988196,-0.6149906,0.6515989,0.36219037,-0.20167129,-0.1699874,-0.066500366,0.36429155,0.62992764,0.36517942,0.067976825,0.16834483,0.10272397,-0.08466643,7.172427,-6.464338,0.47016266,3.8805425,-2.5165753,5.3288875,29.760077,48.499893,3.613997,23.811413,-4.812664,9.054377,-6.309385,3.56107,13.466212,6.3217597,46.26889
11,2.0460246,-0.17101954,-0.5151249,0.7064638,0.4336201,-0.27476904,-0.9553265,0.075929575,0.3565964,0.54096574,0.25446072,0.11615603,0.24496432,0.32805896,0.6248072,5.086125,-12.75601,4.113752,5.2705383,-3.2327178,5.01496,106.55884,27.017479,6.3027277,20.864796,-7.5456295,31.753735,-7.451525,8.264422,11.563508,-7.659105,58.76861
12,2.2547824,-0.08042398,-0.41080615,0.79384404,0.3241919,-0.22395526,-1.4965476,0.22061016,0.5222886,0.35374457,0.3455997,0.12231267,0.2831019,0.43821645,1.0241332,3.7919927,-25.825666,6.3374166,5.5497904,-3.957352,4.7754617,158.10915,4.486671,12.125358,10.3067045,-10.379359,41.058514,-6.970825,4.5811267,8.726487,-18.79133,65.61994
13,2.2841337,-0.10765613,-0.37683037,0.8322023,0.42243096,-0.11886866,-1.3389404,0.23079585,0.5367742,0.077497415,0.54834324,0.04576667,0.30620468,0.4290983,1.1327974,3.919994,-36.828503,5.981826,5.6906023,-8.157089,3.6062431,110.97959,-1.0027748,24.897572,17.921616,-10.441626,50.864246,1.0250869,-1.4927763,7.679436,-26.00956,64.156746
14,2.076336,-0.17128946,-0.2553902,0.9117715,0.46628866,-0.08422309,-1.1217564,0.15814531,0.47696468,-0.043060053,0.50725895,0.094970055,0.38309234,0.370593,0.9107392,4.056022,-42.333042,6.4330626,5.042845,-14.626248,3.473008,74.36275,1.5800949,30.300432,6.967441,-10.4041,40.840572,6.1565094,-5.7290545,6.144985,-28.116005,65.54898
15,1.7334559,-0.2999887,-0.16278811,0.9449748,0.5103603,-0.031893928,-0.70993924,-0.017999815,0.27304968,-0.079950966,0.17155126,0.20556599,0.5195123,0.36827922,0.8711636,4.2809973,-40.446068,5.3626976,3.074043,-21.350542,1.9662565,0.56873095,10.403351,29.878857,27.058552,-10.881145,-20.612406,-1.0878386,-10.598889,5.3236666,-30.362793,66.4731
16,1.4877733,-0.46420822,-0.075075455,0.90811205,0.30982995,-0.00556711,-0.25475955,-0.1187522,-0.030195773,-0.10398873,-0.26295647,0.30628544,0.64663875,0.377642,0.9663085,5.06877,-39.971943,5.3691645,1.1715428,-39.4187,-0.28842145,-37.154808,47.886818,26.182785,35.600685,-11.04772,-115.487755,-3.4801037,-8.014178,7.414106,-36.1322,69.13036
17,1.1698122,-0.67136496,-0.010611065,0.83510536,0.14116521,0.018930672,0.15447637,-0.16691217,-0.1580949,-0.11193092,-0.5654729,0.44323957,0.904063,0.28409776,0.8686612,5.234602,-31.762339,7.0589447,-1.4303472,-56.6712,-2.553996,-43.836773,61.022583,9.18735,32.87225,-11.860043,-186.38246,-28.854164,-17.020535,8.285617,-16.070244,71.106255
18,0.8809944,-0.7261585,0.011150927,0.8149594,0.16796263,0.04913134,0.2396654,-0.13506651,-0.11749218,-0.14950128,-0.1468202,0.45048466,0.9820031,0.19730036,0.74930453,5.3856626,-28.238844,15.138679,-1.8558002,-61.125584,-3.3060179,-18.028223,70.7328,0.79477996,28.177341,-13.623474,-87.39049,-47.93156,-22.734314,7.7609506,-10.235693,68.036964
19,0.7208467,-0.72601765,0.064631104,0.77503574,0.12774532,0.058699977,0.1389861,-0.1524679,-0.09863044,-0.14151645,0.025363633,0.41559723,1.0454108,0.16202776,0.6182724,5.589069,-28.271982,21.679617,-3.301804,-63.90534,-4.668675,42.66054,71.50092,-6.2508597,23.798443,-15.537491,32.959682,-83.79756,-24.723497,6.9149766,-1.329787,64.03154
