,0,1,2,3,4,5,6,7,8,9,10,11,12,13,14,15,16,17,18,19,20,21,22,23,24,25,26,27,28,29,30,31
0,-0.25170863,-5.806795,0.24264324,5.5283747,8.106813,-3.551042,-4.8753624,-1.2844889,-10.049003,17.150074,13.797411,-2.7441406,-4.080654,7.910339,-2.2388203,11.425373,-3.3640199,6.1660423,-5.251193,-4.1222115,-17.81099,3.4594774,-1.071805,0.13461907,5.7700577,-5.814926,-11.178104,0.94323415,5.9203086,-12.735415,-8.923822,-53.02219
1,-1.8926806,-1.2069547,-4.746425,2.4901154,-1.5388947,-0.4979167,-4.459321,-3.291373,-2.270613,0.26776183,0.26155198,-2.8910773,0.4820513,4.170081,-4.027907,7.5358505,1.928534,3.478697,0.6197027,-1.5592089,-7.099799,-1.1078161,4.158214,1.6325121,0.5001018,0.58136046,2.7370074,2.3294103,-0.7715175,-8.007881,2.5862095,-52.65376
2,-2.3231263,0.52016604,-3.03343,1.5630541,-1.217321,0.38901657,-2.7768567,-1.8991671,-1.3637278,1.8509707,-0.09046521,-0.8942816,0.9904206,0.97176534,-0.5884774,3.7833977,2.3868723,-1.2231723,0.636958,-1.1572137,-3.2851999,-3.4716601,5.3164883,3.951252,-0.20075665,-6.298893,2.8563375,0.70671546,-6.054293,-2.2309952,-5.928932,-47.93016
3,-1.4964739,0.72801816,-1.1728686,0.7565359,-1.328099,-0.3048178,-2.2520835,-0.6638285,-0.23097913,2.224775,0.27615264,0.19640538,0.0038685147,-0.71785796,-0.04647047,0.85299385,2.3995214,-4.3799963,-0.888311,-1.089816,-1.8788426,-1.9254713,4.430239,1.0839479,-1.2962265,-10.660075,0.77779675,-1.0082506,-2.2023468,1.814451,-6.498873,-41.96286
4,-1.004921,0.7896731,-0.59487987,0.47683296,-1.2624058,-0.48723868,-1.8629293,-0.3946616,0.07689531,0.91475254,0.17074673,0.51766217,-0.13283895,-0.85317636,0.13799438,-1.5170624,3.3978236,-6.6825724,-1.7909952,-1.7863299,-1.5084043,-0.3827429,5.6078067,0.06467574,-2.516715,-6.014595,0.41039932,-2.3986666,1.0459139,3.1286507,-2.1888356,-38.507538
5,-0.8162011,0.7783298,-0.6071428,0.26516354,-1.0009031,-0.5950696,-1.5596951,-0.21394986,0.12656748,0.13285896,0.14031696,0.4098984,-0.28730658,-0.68640107,0.7496339,-3.9018016,3.5448682,-9.409021,-1.9072394,-2.446381,-1.4342359,1.1477206,4.076703,-0.9170909,-3.3251824,-2.8500462,0.08292559,-2.6441128,4.030309,3.096509,-2.4663517,-40.153313
6,-0.83211803,0.6144298,-0.768474,0.040875986,-1.121164,-0.62693673,-1.4217858,-0.24085659,0.07209341,-0.056719333,0.15731892,0.26731393,-0.34618863,-0.30804902,0.21914554,-6.4513206,2.1230414,-13.046342,-0.34784222,-1.7509252,1.1687799,2.1248155,5.0660524,-3.331127,-7.280553,-2.5276017,0.13429359,-2.872713,3.492795,1.1965166,-2.2328262,-48.081474
7,-0.24268371,0.12069047,-0.682546,-0.022323318,-3.3004663,0.36500728,-1.5397743,-0.98269594,0.33950016,0.1608033,-0.259031,-0.6741296,0.047914125,-0.84715104,0.23681769,-2.0636444,-1.383349,3.8581371,3.7428794,-0.99121165,1.3270872,-6.042802,2.7510128,-0.74447316,2.981442,-4.3936114,-3.0404887,3.3886108,3.1804876,2.4305396,-3.0784864,61.407707
8,-0.1956334,0.049254693,-0.68748724,0.042104445,-2.3950474,0.32711083,-1.262605,-0.45264778,0.5856524,0.42786616,-0.20859855,-0.26410472,-0.42572516,-1.2513824,0.12761614,0.05926363,-6.7323422,3.9621506,1.5590587,-1.7513113,1.4180224,-5.314132,2.3464231,-5.3868694,4.935728,-2.0964265,-1.9506487,-1.5405805,23.738554,4.4266567,-0.895609,65.800896
9,-0.25607842,0.1001209,-0.75334716,0.04402306,-1.8615797,0.22420722,-1.2242091,-0.20030585,0.7711903,0.6402363,0.105296195,-0.12811132,-0.082893,-1.2243035,-0.12537733,0.2721752,-10.953402,1.900298,-2.6789682,-2.8481486,1.9794817,-3.5361412,5.1117992,-10.232616,4.0099196,-2.3738704,-2.10226,-5.1038485,28.501377,4.498865,1.1772302,64.86092
10,-0.42450783,0.21116747,-0.73317623,0.049070023,-1.4883827,-0.023779962,-0.89253414,-0.16843781,0.7482555,0.26505053,-0.30501437,-0.18984191,0.17059468,-1.0847578,-0.108074576,-0.054757304,-9.042637,-0.7479981,-4.7080665,-1.8497753,1.9516819,0.056331106,7.502943,-12.278822,2.1039128,-1.3929653,-1.719348,-5.339396,30.454727,5.3842106,-0.7426793,61.961136
11,-0.89394563,0.2635256,-0.554267,0.15201817,-1.50547,-0.17879707,-0.124262296,0.3801719,-0.08471987,-0.16864449,-0.3499073,-0.37155205,-0.15911338,-0.02333209,0.5617672,2.4099422,14.897568,-0.47545192,-45.219574,-2.0365753,5.4647284,0.49771276,-12.720166,-6.464243,-5.987462,0.034895793,4.332607,-2.4617572,27.594254,0.09613122,-4.9749703,48.964794
12,-0.7405951,0.17644429,-0.60242414,0.16657415,-1.1468878,0.19984949,-0.25249436,0.18742888,-0.103676155,0.46933717,0.46995515,-0.25960007,0.22077343,-0.17331225,0.05179004,2.4693284,12.860823,-8.482421,-83.94489,-3.0936577,6.8344193,-4.7655063,5.711295,-6.032837,-5.823923,-6.133853,3.7907171,-8.112034,48.77279,0.92713034,-2.197892,52.664345
13,-0.4630703,0.1027395,-0.5848383,0.122119084,-0.92863786,0.22402158,0.1038484,-0.10281174,0.18266383,0.4014391,0.8089912,-0.17853802,0.6063981,-0.3910426,-0.7865273,3.4026809,9.293181,-13.056345,-98.66174,-3.5781865,7.0539103,-8.270838,20.6848,-3.1075382,-3.6947346,-4.580182,3.9172773,-14.300554,61.649246,4.2744694,3.0305967,56.894085
14,-0.54365957,0.08952844,-0.5850978,0.08096546,-0.78832114,0.051908325,-0.14449656,-0.19938546,0.22210303,-0.05002076,1.1933153,-0.23378725,0.4962001,-0.33892822,-0.9375303,3.382381,11.926933,-15.546177,-83.05774,-4.9831815,5.202216,-10.685459,20.665806,-6.0260706,-2.8050904,3.2930572,3.1756058,-2.662799,60.878372,4.5849733,5.799417,57.90886
15,-0.5209198,0.17814389,-0.58569515,0.08305515,-0.70241594,-0.039694823,-0.2563194,0.1788012,-0.015836485,-0.22381172,1.2357987,-0.30036557,0.2728657,-0.2406531,-0.6797494,3.0168915,10.362794,-16.850657,-80.84846,-9.187105,3.795282,-12.644368,20.750893,-9.74248,-3.678201,6.4304166,1.3022712,37.11106,108.273964,1.265016,6.7573757,56.76361
16,-0.4500453,0.27442968,-0.5844446,0.0997663,-0.6380086,-0.13813378,-0.27601013,0.1382046,-0.26079088,-0.24342746,0.9319317,-0.3685329,0.12147373,-0.12006565,-0.25507766,2.7223983,8.224706,-19.403202,-72.295135,-11.114983,2.0631275,-14.089006,13.500909,-9.999119,-3.4256253,6.176283,0.12714311,83.25277,163.17874,-3.2475848,3.4477956,54.6913
17,-0.302137,0.3099868,-0.58811444,0.115569904,-0.5907005,-0.16863269,-0.48059565,0.027128465,-0.46933752,-0.22806284,0.56822276,-0.41629183,-0.14758326,-0.08167367,0.10006243,2.0796287,3.033165,-25.93482,-61.305893,-14.911819,-0.52090895,-13.612396,0.14671528,-7.573593,-1.6265581,2.9801707,-0.0031007407,114.03068,197.49466,-2.5612845,-2.069472,56.936756
18,-0.20543313,0.36964828,-0.61258507,0.14857389,-0.542341,-0.13285676,-0.5517714,0.031147871,-0.522632,-0.2989946,0.32877645,-0.46170044,-0.4135653,-0.100059226,0.20716664,1.9061027,-1.1385658,-23.444374,-110.071045,-17.321953,-2.1050863,-10.770764,-4.1203356,-12.828907,2.1220212,1.2112961,0.3554558,137.8676,241.70996,0.69991446,-5.1940727,57.634407
19,-0.07207422,0.4372794,-0.64402324,0.17147794,-0.5584209,-0.086174406,-0.32642716,-0.1802693,-0.42932233,-0.35871524,0.28800002,-0.49702716,-0.41574305,-0.07026,0.1668095,2.065434,-9.753692,-7.7797055,-99.19147,-17.756927,-2.575899,-1.3148334,0.9081204,-10.100611,5.414367,2.9370017,0.22565249,156.45793,247.82872,7.8683853,-6.1056385,55.028034
20,-0.024312314,0.5705248,-0.6618451,0.18428642,-0.47249442,-0.050766908,0.0007036794,-0.39981243,-0.44096643,-0.41898018,0.28142852,-0.55629826,-0.48573095,-0.030434342,0.1780715,2.3372746,-18.42944,36.154778,-189.12997,-22.850422,-3.5116234,7.7165422,5.737464,-3.8703377,5.017084,8.487756,0.18910125,178.18668,336.12622,12.115789,-7.863318,51.433784
21,-0.08595233,0.6789602,-0.6869462,0.18726328,-0.4981037,-0.038380586,-0.026730971,-0.53628045,-0.43807817,-0.32574084,0.34755468,-0.64861834,-0.4271487,0.040492125,0.17796597,3.0685234,-21.333735,113.53468,-242.27155,-23.483189,-3.6100214,9.92248,5.214083,0.51392514,3.1647828,11.054285,0.56597364,203.24214,295.58627,6.671489,-8.906231,44.549202
