,0,1,2,3,4,5,6,7,8,9,10,11,12,13,14,15,16,17,18,19,20,21,22,23,24,25,26,27,28,29,30,31
0,-1.6091951,1.1593337,1.1143092,2.1736867,-0.8754323,0.41903517,-3.9694545,0.7163556,3.064764,2.3674538,0.73907936,0.23196091,-1.6184891,-1.7772644,-5.440179,9.908423,11.272558,-3.5878496,0.17372243,-5.177434,11.830651,-1.8669603,9.015462,-2.358639,-11.192748,-5.4885235,-4.497751,-3.0600567,2.898965,-2.1435082,16.501331,38.499928
1,-1.2191308,0.36284527,1.133897,1.2053833,0.49302012,-0.06996037,-1.2185851,0.8119011,1.4192836,2.115024,1.3444309,0.07272548,-0.4294864,-2.0717394,-3.0504224,10.298307,8.890374,-2.000983,-1.3574358,-2.025012,9.951106,-0.41782758,4.1773996,-2.9334116,-7.9996843,-4.984782,-5.556424,-2.7624621,1.1670146,2.6930263,14.336439,24.07137
2,-1.2390399,0.1408789,0.8692054,1.2328918,0.88521165,-0.25670627,0.042022113,0.66711766,1.1004667,1.3309028,1.0652938,0.034426566,0.04455101,-2.2644942,-1.793893,9.736531,10.168992,-1.841639,-0.9674195,-2.149797,8.303628,3.403321,-0.35346594,-3.301606,-5.220508,-3.4032116,-5.968608,-3.2661846,0.38946873,9.513055,12.9930105,14.352778
3,-1.1187122,0.21729408,0.787125,0.9649529,0.8616894,-0.16732484,0.21559435,0.578887,1.0853987,0.7832824,0.7155284,-0.2631391,0.21342066,-1.6289214,-1.1496931,8.83764,13.427799,-2.9925385,-0.6256796,-0.9587619,5.633066,5.2081876,-1.3714389,-3.290985,-6.3275166,-2.3870153,-4.706559,-2.1043057,-0.055335574,11.224491,11.222716,10.03124
4,-0.86672246,0.24011362,0.90819615,0.7673928,0.8089709,-0.14942603,0.16197518,0.4124266,0.8480084,0.36822835,0.6168208,-0.5200894,0.30770695,-1.1725926,-0.8639208,7.841641,15.700543,-3.116405,-1.163153,0.13837497,-0.14664383,6.9977655,-1.6471509,-2.5190337,-5.302534,-1.1408347,-3.5076048,0.6826778,0.0802784,12.751282,11.184337,9.081055
5,-0.66387177,0.16770817,0.9994541,0.52027214,1.6252319,-0.14347501,0.16230692,0.40387386,0.5934899,0.06926725,0.60335225,-0.29452834,0.47911093,-0.71935254,-0.11140759,6.9794803,12.677307,-1.3986456,-3.1864107,0.926079,-8.773555,4.05119,-3.5908878,-2.891995,-0.61013955,1.186992,-3.6941204,1.1616448,-0.75551665,12.68401,6.8056574,12.514023
6,0.106274046,0.1362093,0.8700729,0.13835357,2.4953313,-0.30404153,0.05889899,0.36172515,0.43962902,-0.16229215,0.6650934,-0.084077865,0.4369887,-0.7147499,0.7513696,7.163203,-1.6413487,1.39512,-5.925201,2.6366465,-15.700387,3.0383594,-2.8658447,-3.841139,3.263932,4.7151313,-4.2993727,2.8445885,-1.443717,11.112733,-1.99925,19.155191
7,0.87185884,0.1901948,0.6856254,-0.1161414,2.3617961,-0.21025679,0.0045649204,0.027389066,0.8021501,-0.25600976,0.95815647,-0.14642912,0.1388269,-0.9783554,0.7998015,7.874596,-13.291225,0.41700968,-6.4796634,4.2524705,-14.034873,4.243031,0.5397764,-4.5913086,-2.1639512,4.7562256,-3.356728,6.507183,-0.1620455,21.580513,-3.9518917,22.424242
8,0.29944637,0.095385656,0.5733067,0.44200966,1.806833,-0.018928254,-0.1385071,-0.054636043,1.0547389,-0.33165085,0.868278,-0.052984696,-0.13138792,-1.0709198,0.9049693,8.380475,-19.927555,-2.537091,-4.5570664,-0.05275126,-9.486769,1.9882259,1.1769065,-3.897658,-5.4636908,4.1931467,-2.9358716,2.3178911,2.1089797,28.60788,-7.1357093,20.894613
9,-2.407362,-0.055991784,0.45692536,1.3879762,1.0920875,0.22290488,-0.48970827,0.29123095,1.0482178,-0.15832935,0.36331576,0.46664903,-0.16426556,-1.2043636,1.1408345,7.7566223,-28.966898,-0.8532025,9.254938,-12.042236,-3.0184288,-13.08971,1.5391783,0.46341398,-3.785002,-1.0212122,-4.6728616,-18.143602,2.8298035,26.356003,-18.511244,18.359104
10,-2.62964,-0.19024472,0.5600944,1.0523062,0.51758397,0.28223395,-0.50497967,0.004928944,1.0217608,-0.105212756,0.5214254,0.55830425,0.1364646,-1.9021723,1.0628814,8.621433,-4.7126293,2.7213938,12.037964,-11.735898,0.31608328,-7.5387893,6.8158684,0.72379005,-19.533249,-5.617011,-8.136182,-20.82789,-1.4447393,34.426426,-20.125475,26.473782
11,-2.562779,-0.2709359,0.53472096,0.76611257,0.369976,0.51344013,-0.3754056,-0.17618592,0.982819,-0.08514023,0.6984248,0.33807698,0.23755738,-2.3374438,0.7731895,10.367068,38.749516,2.4593804,9.545041,-8.1795635,0.54208755,-5.4249926,9.139925,2.8097136,-21.464848,-10.008846,-13.927737,-7.4496965,-5.9804378,33.188854,-20.145472,40.736908
12,-2.659337,-0.14882563,0.4207092,0.7345254,0.48261833,0.58626264,-0.09162662,0.15739922,0.75929254,-0.01994452,0.46787676,0.28524324,0.31994116,-2.9330385,0.025813656,11.321186,42.712254,3.3424332,13.999867,-5.9868464,-0.8130158,-14.379278,2.7677119,2.9126885,-14.149294,-16.692705,-15.522351,-0.404119,-12.437856,20.043964,-29.859074,55.796436
13,-2.5278804,0.114639305,0.3909413,0.74439114,0.4368834,0.4885457,0.37736976,0.24734788,0.40240458,0.11527416,0.31665295,0.21891165,0.44949257,-2.7037039,-0.7858988,11.382228,-42.48056,6.8425345,23.218815,-3.8031747,-1.4972043,-37.26176,-10.400881,3.4916267,-5.3859878,-25.04193,-12.444922,-11.628854,-24.246546,0.59816843,-30.064161,70.36222
14,-2.1553183,0.38577268,0.3884915,0.77212113,0.6848313,0.09801677,0.24084422,0.10195713,0.79530346,0.33778197,0.35616767,-0.112255454,0.4679121,-1.7759343,-1.0549587,11.838273,-107.89496,11.075076,49.85155,-4.020746,-1.9374151,-44.71382,-9.152798,6.93308,-3.2379835,-35.322495,-6.9258184,-17.285292,-30.925459,-64.836914,-29.891178,84.361374
15,-1.8406527,0.31741986,0.4179118,0.6229518,1.0664053,-0.19053091,0.10075608,0.032660082,1.2459844,0.48821372,0.5369066,-0.42485,0.49507195,-1.6762087,-0.8666994,13.449821,-161.48997,7.513506,81.16416,0.0323159,-3.5286415,-51.47902,-7.3425865,9.837999,-5.1710725,-48.895504,-3.8018062,12.226558,-24.42629,-59.78458,-34.534664,86.4005
16,-1.97632,0.042695053,0.5303258,0.4503888,1.1920484,-0.5272095,0.037045028,0.028735498,1.3839915,0.5481074,0.6202657,-0.5301683,0.5369581,-1.4200214,-0.58948034,14.991596,-158.85378,2.8462436,101.29305,4.318748,-4.3113966,-73.04709,-8.252371,10.23233,-8.232213,-58.890118,-2.5765123,40.615,-17.243027,-55.911186,-31.863504,83.89642
17,-2.1655266,0.049045213,0.52431947,0.30076608,1.2966524,-0.6051702,-0.20441161,0.11030494,1.1472571,0.5487861,0.46870026,-0.63426137,0.51669383,-1.1525503,-0.27595368,15.048835,-62.863804,8.8557005,115.43969,1.7074505,-5.0481687,-71.96509,-9.324625,8.847919,-8.09836,-50.255,-2.3839262,62.671303,-17.610357,-43.315495,-32.17053,83.78506
18,-2.2187607,0.087931685,0.5497728,0.15344304,1.2458452,-0.52340543,-0.17507668,0.15044492,0.76273084,0.55011344,0.80019563,-0.68374807,0.4923227,-0.54226166,-0.14644693,14.847429,-17.641369,13.728426,113.407745,-4.91286,-4.9409895,-58.83994,-19.750195,5.428227,-4.1274104,-46.48258,1.009547,68.61517,-12.639564,-1.0334659,-28.73446,80.96353
19,-2.2550597,0.08796627,0.6790676,0.02802173,0.9469742,-0.54083997,-0.1425011,0.14664221,0.45588848,0.53360564,0.9784474,-0.7314277,0.4653192,-0.22849676,-0.051011283,14.793858,34.887936,15.318297,93.95134,-13.958751,-2.513513,-63.9715,-29.877144,0.8197227,0.6710929,-41.36225,1.9749001,66.79607,-8.053381,18.579828,-31.572405,72.8568
